Language model created by QuickLM on Tue Apr 16 11:47:18 EDT 2013
Copyright (c) 1996-2010 Carnegie Mellon University and Alexander I. Rudnicky

The model is in standard ARPA format, designed by Doug Paul while he was at MITRE.

The code that was used to produce this language model is available in Open Source.
Please visit http://www.speech.cs.cmu.edu/tools/ for more information

The (fixed) discount mass is 0.5. The backoffs are computed using the ratio method.
This model based on a corpus of 11 sentences and 15 words

\data\
ngram 1=15
ngram 2=24
ngram 3=18

\1-grams:
-0.8617 </s> -0.3010
-0.8617 <s> -0.2368
-1.9031 AROUND -0.2368
-1.9031 BACKWARD -0.2368
-1.6021 COME -0.2304
-1.9031 FORWARD -0.2368
-1.9031 HALT -0.2368
-1.9031 HERE -0.2368
-1.9031 LEFT -0.2368
-1.6021 MOVE -0.2900
-1.9031 RIGHT -0.2368
-1.6021 STAY -0.2304
-1.9031 STILL -0.2368
-1.9031 STOP -0.2368
-1.4260 TURN -0.2844

\2-grams:
-1.0414 <s> COME 0.0000
-1.3424 <s> HALT 0.0000
-1.0414 <s> MOVE 0.0000
-1.0414 <s> STAY 0.0000
-1.3424 <s> STOP 0.0000
-0.8653 <s> TURN 0.0000
-0.3010 AROUND </s> -0.3010
-0.3010 BACKWARD </s> -0.3010
-0.6021 COME </s> -0.3010
-0.6021 COME HERE 0.0000
-0.3010 FORWARD </s> -0.3010
-0.3010 HALT </s> -0.3010
-0.3010 HERE </s> -0.3010
-0.3010 LEFT </s> -0.3010
-0.6021 MOVE BACKWARD 0.0000
-0.6021 MOVE FORWARD 0.0000
-0.3010 RIGHT </s> -0.3010
-0.6021 STAY </s> -0.3010
-0.6021 STAY STILL 0.0000
-0.3010 STILL </s> -0.3010
-0.3010 STOP </s> -0.3010
-0.7782 TURN AROUND 0.0000
-0.7782 TURN LEFT 0.0000
-0.7782 TURN RIGHT 0.0000

\3-grams:
-0.6021 <s> COME </s>
-0.6021 <s> COME HERE
-0.3010 <s> HALT </s>
-0.6021 <s> MOVE BACKWARD
-0.6021 <s> MOVE FORWARD
-0.6021 <s> STAY </s>
-0.6021 <s> STAY STILL
-0.3010 <s> STOP </s>
-0.7782 <s> TURN AROUND
-0.7782 <s> TURN LEFT
-0.7782 <s> TURN RIGHT
-0.3010 COME HERE </s>
-0.3010 MOVE BACKWARD </s>
-0.3010 MOVE FORWARD </s>
-0.3010 STAY STILL </s>
-0.3010 TURN AROUND </s>
-0.3010 TURN LEFT </s>
-0.3010 TURN RIGHT </s>

\end\
